svm_type nu_svc
kernel_type rbf
gamma 1.0E-4
nr_class 7
total_sv 7
rho 0.0 0.0 0.0 0.0 0.0 0.0 0.0 0.0 0.0 0.0 0.0 0.0 0.0 0.0 0.0 0.0 0.0 0.0 0.0 0.0 0.0
label 1 2 3 4 5 6 7
nr_sv 1 1 1 1 1 1 1
SV
994.2643119591926 1600.5739362717243 1212.664691001114 2000.3834505778973 1416.3964542000392 1379.8187350933438 1:1.0 2:0.0 3:0.0 4:1.0 5:0.0 6:0.0 7:1.0 8:1.0 9:1.0 10:1.0 11:0.0 12:0.0 13:0.5 14:0.0 15:0.0 16:1.0 -1:0.0 
-994.2643119591926 1650.0015735642858 1240.826566082305 1416.3964541999453 1905.2028162618703 1416.3964542000965 1:0.0 2:1.0 3:1.0 4:0.0 5:1.0 6:0.0 7:0.0 8:0.0 9:1.0 10:1.0 11:0.0 12:0.0 13:0.25 14:1.0 15:1.0 16:0.0 -1:0.0 
-1600.5739362717243 -1650.0015735642858 2500.3302533531423 3077.2589875271656 1798.2010718115855 2000.3834505782713 1:0.0 2:0.0 3:1.0 4:0.0 5:0.0 6:0.0 7:1.0 8:1.0 9:1.0 10:1.0 11:1.0 12:0.0 13:0.0 14:1.0 15:0.0 16:0.0 -1:0.0 
-1212.664691001114 -1240.826566082305 -2500.3302533531423 3077.258987527978 1322.8113222422778 2000.3834505780787 1:0.0 2:0.0 3:1.0 4:0.0 5:0.0 6:1.0 7:1.0 8:1.0 9:1.0 10:0.0 11:0.0 12:1.0 13:0.0 14:1.0 15:0.0 16:0.0 -1:0.0 
-2000.3834505778973 -1416.3964541999453 -3077.2589875271656 -3077.258987527978 2462.1684766656513 2353.3757890308875 1:0.0 2:0.0 3:1.0 4:0.0 5:0.0 6:1.0 7:1.0 8:1.0 9:1.0 10:1.0 11:0.0 12:0.0 13:0.5 14:0.0 15:0.0 16:0.0 -1:0.0 
-1416.3964542000392 -1905.2028162618703 -1798.2010718115855 -1322.8113222422778 -2462.1684766656513 3902.5857176095915 1:0.0 2:0.0 3:1.0 4:0.0 5:0.0 6:0.0 7:0.0 8:0.0 9:0.0 10:1.0 11:0.0 12:0.0 13:0.75 14:0.0 15:0.0 16:0.0 -1:0.0 
-1379.8187350933438 -1416.3964542000965 -2000.3834505782713 -2000.3834505780787 -2353.3757890308875 -3902.5857176095915 1:0.0 2:0.0 3:1.0 4:0.0 5:0.0 6:0.0 7:1.0 8:0.0 9:0.0 10:0.0 11:0.0 12:0.0 13:0.0 14:0.0 15:0.0 16:0.0 -1:0.0 
