svm_type nu_svc
kernel_type rbf
gamma 8.0E-4
nr_class 7
total_sv 48
rho -0.12349072380596973 0.04016499467708704 0.003388249507754166 -0.3050164651826204 -0.12307843302704947 0.03299166650654812 0.00842293859319911 -0.10048793268950781 -0.15290958555443926 -0.0940816275994999 0.29677808550427764 -0.5356897527481855 3.9736413932676685E-4 -0.2414720677834668 -0.14317981712785888 -2.286541161642482E-15 -0.025161205829127047 0.18932499175344797 -4.0141557977395515E-4 0.25731218811048484 1.9628731777088158
label 1 2 3 4 5 6 7
nr_sv 11 11 4 8 3 5 6
SV
0.0 0.0 0.0 104.30924435599138 83.22025943444457 81.05793373513357 1:1.0 2:0.0 3:0.0 4:1.0 5:0.0 6:0.0 7:1.0 8:1.0 9:1.0 10:1.0 11:0.0 12:0.0 13:0.5 14:0.0 15:0.0 16:1.0 -1:0.0 
38.50358935738333 44.93188814407242 0.0 0.0 0.0 0.0 1:1.0 2:0.0 3:0.0 4:1.0 5:0.0 6:0.0 7:0.0 8:1.0 9:1.0 10:1.0 11:0.0 12:0.0 13:0.5 14:1.0 15:0.0 16:1.0 -1:0.0 
0.0 0.0 46.26803764321878 32.221068122008184 0.0 17.30857008538935 1:1.0 2:0.0 3:0.0 4:1.0 5:0.0 6:0.0 7:0.0 8:1.0 9:1.0 10:1.0 11:0.0 12:0.0 13:0.5 14:1.0 15:1.0 16:0.0 -1:0.0 
0.0 162.91103938125866 0.0 0.0 0.0 25.533249126567107 1:1.0 2:0.0 3:0.0 4:1.0 5:0.0 6:0.0 7:1.0 8:1.0 9:1.0 10:1.0 11:0.0 12:0.0 13:0.5 14:1.0 15:0.0 16:0.0 -1:0.0 
31.519608238299224 34.93111134913476 95.39801575921392 14.394881738328321 0.0 0.0 1:0.0 2:0.0 3:0.0 4:1.0 5:0.0 6:1.0 7:1.0 8:1.0 9:1.0 10:1.0 11:0.0 12:1.0 13:0.0 14:1.0 15:0.0 16:1.0 -1:0.0 
0.0 0.0 0.0 46.21927761649584 0.0 51.481881353833074 1:1.0 2:0.0 3:0.0 4:1.0 5:0.0 6:0.0 7:0.0 8:1.0 9:1.0 10:1.0 11:0.0 12:0.0 13:0.5 14:1.0 15:0.0 16:0.0 -1:0.0 
70.02319759568256 162.91103938125866 95.39801575921392 104.30924435599138 0.0 81.05793373513357 1:0.0 2:0.0 3:0.0 4:1.0 5:0.0 6:1.0 7:1.0 8:1.0 9:1.0 10:1.0 11:0.0 12:1.0 13:0.0 14:1.0 15:0.0 16:1.0 -1:0.0 
63.72110981207114 0.0 0.0 0.0 83.22025943444457 0.0 1:1.0 2:0.0 3:0.0 4:1.0 5:1.0 6:0.0 7:0.0 8:1.0 9:1.0 10:1.0 11:0.0 12:0.0 13:0.25 14:1.0 15:0.0 16:0.0 -1:0.0 
70.02319759568256 78.97526390352003 0.0 0.0 83.22025943444457 0.0 1:1.0 2:0.0 3:0.0 4:1.0 5:1.0 6:0.0 7:0.0 8:1.0 9:1.0 10:1.0 11:0.0 12:0.0 13:0.25 14:1.0 15:0.0 16:0.0 -1:0.0 
0.0 0.0 0.0 0.0 12.066937617994464 12.267482295911147 1:1.0 2:0.0 3:0.0 4:1.0 5:0.0 6:0.0 7:0.0 8:1.0 9:1.0 10:1.0 11:0.0 12:0.0 13:0.25 14:0.0 15:0.0 16:1.0 -1:0.0 
0.0 0.0 95.39801575921392 0.0 0.0 0.0 1:1.0 2:0.0 3:0.0 4:1.0 5:0.0 6:1.0 7:1.0 8:1.0 9:1.0 10:1.0 11:0.0 12:1.0 13:0.25 14:1.0 15:0.0 16:1.0 -1:0.0 
-0.0 15.414113791047264 0.0 0.40393136159124077 15.430261550558129 0.7191446172046336 1:0.0 2:1.0 3:1.0 4:0.0 5:1.0 6:0.0 7:0.0 8:0.0 9:1.0 10:1.0 11:0.0 12:0.0 13:0.25 14:1.0 15:1.0 16:0.0 -1:0.0 
-0.012683092606871 0.0 0.0 0.0 83.49007069637102 0.0 1:0.0 2:1.0 3:1.0 4:0.0 5:1.0 6:0.0 7:0.0 8:0.0 9:1.0 10:1.0 11:0.0 12:0.0 13:0.25 14:1.0 15:0.0 16:1.0 -1:0.0 
-70.02319759568256 0.0 0.0 0.0 0.0 0.0 1:0.0 2:1.0 3:1.0 4:0.0 5:1.0 6:0.0 7:0.0 8:0.0 9:1.0 10:1.0 11:0.0 12:0.0 13:0.25 14:1.0 15:0.0 16:0.0 -1:0.0 
-63.72110981207114 0.0 0.0 0.0 0.0 0.0 1:0.0 2:1.0 3:1.0 4:0.0 5:1.0 6:0.0 7:0.0 8:0.0 9:1.0 10:1.0 11:0.0 12:0.0 13:0.25 14:1.0 15:0.0 16:0.0 -1:0.0 
-38.360362436608185 460.6291720231807 29.70063746332242 0.0 0.0 0.0 1:0.0 2:1.0 3:1.0 4:0.0 5:0.0 6:0.0 7:0.0 8:0.0 9:1.0 10:1.0 11:0.0 12:0.0 13:0.25 14:1.0 15:0.0 16:1.0 -1:0.0 
-31.650152066467506 0.0 0.0 0.0 0.0 0.0 1:0.0 2:1.0 3:1.0 4:0.0 5:0.0 6:0.0 7:1.0 8:0.0 9:1.0 10:1.0 11:0.0 12:0.0 13:0.25 14:1.0 15:0.0 16:1.0 -1:0.0 
-0.0 0.0 0.0 0.0 83.49007069636745 0.0 1:0.0 2:1.0 3:1.0 4:0.0 5:1.0 6:1.0 7:0.0 8:0.0 9:1.0 10:1.0 11:0.0 12:0.0 13:0.25 14:1.0 15:0.0 16:0.0 -1:0.0 
-0.0 282.6340208034123 16.90165587658635 106.77143582098321 197.28329436375836 213.21165088063918 1:0.0 2:1.0 3:1.0 4:0.0 5:0.0 6:0.0 7:1.0 8:0.0 9:1.0 10:1.0 11:0.0 12:0.0 13:0.25 14:1.0 15:0.0 16:0.0 -1:0.0 
-70.02319759568256 102.92602443267396 135.2132470126908 107.1744033615599 0.0 100.01360287543677 1:0.0 2:1.0 3:1.0 4:0.0 5:0.0 6:1.0 7:1.0 8:0.0 9:1.0 10:1.0 11:0.0 12:0.0 13:0.25 14:1.0 15:0.0 16:1.0 -1:0.0 
-0.0 0.0 105.51260954936839 112.98736340515661 0.0 0.0 1:0.0 2:1.0 3:1.0 4:0.0 5:1.0 6:1.0 7:1.0 8:0.0 9:1.0 10:1.0 11:0.0 12:0.0 13:0.25 14:1.0 15:0.0 16:0.0 -1:0.0 
-0.0 0.0 0.0 0.0 0.0 104.29030682500407 1:0.0 2:1.0 3:1.0 4:0.0 5:1.0 6:0.0 7:0.0 8:0.0 9:1.0 10:1.0 11:0.0 12:0.0 13:0.25 14:1.0 15:0.0 16:0.0 -1:0.0 
-0.0 -86.47972217748122 0.0 556.0526968170984 89.64383557381429 159.94705557878342 1:0.0 2:0.0 3:1.0 4:0.0 5:0.0 6:0.0 7:1.0 8:1.0 9:1.0 10:1.0 11:1.0 12:0.0 13:0.0 14:1.0 15:0.0 16:0.0 -1:0.0 
-162.91103938125866 -0.0 443.9835115844116 0.0 0.0 199.76546197015668 1:0.0 2:0.0 3:0.0 4:0.0 5:0.0 6:1.0 7:1.0 8:1.0 9:1.0 10:0.0 11:1.0 12:0.0 13:0.0 14:1.0 15:0.0 16:0.0 -1:0.0 
-158.8382633967272 -533.5005145822378 156.64983611565032 0.0 344.6827786761049 240.00345481974102 1:0.0 2:0.0 3:1.0 4:0.0 5:0.0 6:0.0 7:0.0 8:0.0 9:1.0 10:1.0 11:0.0 12:0.0 13:0.5 14:1.0 15:0.0 16:1.0 -1:0.0 
-162.91103938125866 -241.62309429059513 65.61112107441674 0.0 0.0 0.0 1:0.0 2:0.0 3:1.0 4:0.0 5:0.0 6:0.0 7:1.0 8:1.0 9:1.0 10:1.0 11:0.0 12:0.0 13:0.5 14:1.0 15:0.0 16:0.0 -1:0.0 
-0.2648937523867283 -135.2132470126908 -365.8434021246187 329.52530955329223 48.21386246582486 187.30571732151665 1:0.0 2:0.0 3:1.0 4:0.0 5:0.0 6:1.0 7:1.0 8:1.0 9:1.0 10:0.0 11:0.0 12:1.0 13:0.0 14:1.0 15:0.0 16:0.0 -1:0.0 
-95.39801575921392 -135.2132470126908 -0.0 34.60015750309568 0.0 99.27203018040383 1:0.0 2:0.0 3:1.0 4:0.0 5:0.0 6:1.0 7:1.0 8:1.0 9:1.0 10:0.0 11:0.0 12:1.0 13:0.0 14:1.0 15:0.0 16:1.0 -1:0.0 
-0.0 -16.90165587658635 -0.0 0.0 0.0 0.0 1:0.0 2:0.0 3:1.0 4:0.0 5:0.0 6:1.0 7:1.0 8:1.0 9:1.0 10:0.0 11:0.0 12:1.0 13:0.0 14:1.0 15:0.0 16:0.0 -1:0.0 
-46.26803764321878 -0.0 -0.0 0.0 48.028699149579005 0.0 1:0.0 2:0.0 3:1.0 4:0.0 5:0.0 6:1.0 7:0.0 8:1.0 9:1.0 10:0.0 11:0.0 12:1.0 13:0.0 14:1.0 15:1.0 16:0.0 -1:0.0 
-0.0 -0.0 -0.0 0.0 85.19919072745012 0.0 1:0.0 2:0.0 3:1.0 4:0.0 5:0.0 6:1.0 7:0.0 8:1.0 9:1.0 10:0.0 11:0.0 12:1.0 13:0.0 14:1.0 15:0.0 16:0.0 -1:0.0 
-95.1331220068272 -0.0 -0.0 0.0 0.0 0.0 1:0.0 2:0.0 3:1.0 4:0.0 5:0.0 6:1.0 7:1.0 8:1.0 9:1.0 10:0.0 11:0.0 12:1.0 13:0.0 14:1.0 15:0.0 16:1.0 -1:0.0 
-0.0 -0.0 -300.40106664985996 0.0 0.0 0.0 1:0.0 2:0.0 3:1.0 4:0.0 5:0.0 6:1.0 7:1.0 8:1.0 9:1.0 10:0.0 11:1.0 12:1.0 13:0.0 14:1.0 15:0.0 16:1.0 -1:0.0 
-95.39801575921392 -0.0 -0.0 0.0 0.0 0.0 1:0.0 2:0.0 3:1.0 4:0.0 5:0.0 6:1.0 7:1.0 8:1.0 9:1.0 10:0.0 11:0.0 12:1.0 13:0.0 14:1.0 15:0.0 16:1.0 -1:0.0 
-104.30924435599138 -213.94583918254312 -0.4973637717583484 -329.52530955329223 0.5026035216099338 464.9427728367272 1:0.0 2:0.0 3:1.0 4:0.0 5:0.0 6:1.0 7:1.0 8:1.0 9:1.0 10:1.0 11:0.0 12:0.0 13:0.5 14:0.0 15:0.0 16:0.0 -1:0.0 
-92.83522747683234 -113.39129476674786 -555.5553330453401 -34.60015750309568 0.0 0.0 1:0.0 2:0.0 3:1.0 4:0.0 5:0.0 6:1.0 7:1.0 8:1.0 9:1.0 10:1.0 11:1.0 12:0.0 13:0.5 14:0.0 15:0.0 16:0.0 -1:0.0 
-104.30924435599138 -0.0 -0.0 -0.0 408.15975076684254 0.0 1:0.0 2:0.0 3:1.0 4:0.0 5:0.0 6:1.0 7:0.0 8:1.0 9:1.0 10:1.0 11:0.0 12:0.0 13:0.5 14:0.0 15:0.0 16:0.0 -1:0.0 
-55.52431416111744 -212.7135559143165 -434.32661424991915 -133.41305319327498 -408.6623542884525 2401.54867560244 1:0.0 2:0.0 3:1.0 4:0.0 5:0.0 6:0.0 7:0.0 8:0.0 9:0.0 10:1.0 11:0.0 12:0.0 13:0.75 14:0.0 15:0.0 16:0.0 -1:0.0 
-12.066937617994464 -166.98014139273846 -0.0 -48.028699149579005 -0.0 456.29424836446407 1:0.0 2:0.0 3:1.0 4:0.0 5:1.0 6:0.0 7:1.0 8:0.0 9:0.0 10:1.0 11:0.0 12:0.0 13:0.75 14:0.0 15:0.0 16:0.0 -1:0.0 
-83.22025943444457 -0.0 -0.0 -0.0 -0.0 0.0 1:1.0 2:0.0 3:1.0 4:0.0 5:1.0 6:0.0 7:0.0 8:0.0 9:0.0 10:1.0 11:0.0 12:0.0 13:0.75 14:0.0 15:0.0 16:0.0 -1:0.0 
-83.22025943444457 -0.0 -0.0 -0.0 -0.0 0.0 1:1.0 2:0.0 3:1.0 4:0.0 5:1.0 6:0.0 7:0.0 8:0.0 9:0.0 10:1.0 11:0.0 12:0.0 13:0.75 14:0.0 15:0.0 16:0.0 -1:0.0 
-27.695945273327133 -0.0 -0.0 -0.0 -0.0 0.0 1:1.0 2:0.0 3:1.0 4:0.0 5:1.0 6:0.0 7:0.0 8:0.0 9:0.0 10:1.0 11:1.0 12:0.0 13:0.75 14:0.0 15:0.0 16:0.0 -1:0.0 
-0.0 -74.22258538240021 -239.9813750312546 -77.38583350168173 -0.0 -0.0 1:0.0 2:0.0 3:1.0 4:0.0 5:0.0 6:0.0 7:1.0 8:0.0 9:0.0 10:0.0 11:0.0 12:0.0 13:0.0 14:0.0 15:0.0 16:0.0 -1:0.0 
-81.05793373513357 -64.92429169911641 -0.0 -64.21757870942268 -0.0 -456.29424836446407 1:0.0 2:0.0 3:1.0 4:0.0 5:0.0 6:1.0 7:1.0 8:0.0 9:0.0 10:0.0 11:0.0 12:0.0 13:1.0 14:0.0 15:0.0 16:1.0 -1:0.0 
-0.0 -0.0 -0.0 -109.91988381983492 -321.7426614021396 -0.0 1:0.0 2:0.0 3:1.0 4:0.0 5:0.0 6:1.0 7:1.0 8:0.0 9:0.0 10:0.0 11:0.0 12:0.0 13:0.5 14:0.0 15:0.0 16:0.0 -1:0.0 
-81.05793373513357 -139.37961800132445 -279.57686933556954 -35.05445147098114 -0.0 -337.2380330431611 1:0.0 2:0.0 3:0.0 4:0.0 5:0.0 6:0.0 7:1.0 8:0.0 9:0.0 10:1.0 11:1.0 12:0.0 13:1.0 14:1.0 15:0.0 16:0.0 -1:0.0 
-25.533249126567107 -0.0 -0.0 -0.0 -0.0 -0.0 1:0.0 2:0.0 3:1.0 4:0.0 5:0.0 6:0.0 7:0.0 8:0.0 9:0.0 10:1.0 11:0.0 12:0.0 13:0.0 14:0.0 15:0.0 16:0.0 -1:0.0 
-81.05793373513357 -139.7082101154436 -80.15772800185687 -0.0 -143.20011143458763 -2064.310642559279 1:0.0 2:0.0 3:1.0 4:0.0 5:0.0 6:0.0 7:0.0 8:0.0 9:0.0 10:1.0 11:0.0 12:0.0 13:0.0 14:0.0 15:0.0 16:0.0 -1:0.0 
