svm_type c_svc
kernel_type rbf
gamma 0.0
nr_class 7
total_sv 61
rho -1.0 -1.0 -1.0 -1.0 -1.0 -1.0 -1.0 -1.0 -1.0 -1.0 -1.0 1.0 -1.0 1.0 1.0 -1.0 -1.0 -1.0 1.0 1.0 1.0
label 1 2 3 4 5 6 7
nr_sv 15 15 4 10 3 6 8
SV
1.0 0.0 0.0 0.0 0.0 0.0 1:1.0 2:0.0 3:1.0 4:1.0 5:0.0 6:1.0 7:1.0 8:0.0 9:1.0 10:1.0 11:0.0 12:0.0 13:0.5 14:1.0 15:0.0 16:1.0 -1:0.0 
1.0 0.0 0.0 0.0 0.0 0.0 1:1.0 2:0.0 3:0.0 4:1.0 5:0.0 6:0.0 7:1.0 8:1.0 9:1.0 10:1.0 11:0.0 12:0.0 13:0.5 14:1.0 15:0.0 16:1.0 -1:0.0 
1.0 0.0 0.0 0.0 0.0 0.0 1:1.0 2:0.0 3:0.0 4:1.0 5:0.0 6:1.0 7:1.0 8:1.0 9:1.0 10:1.0 11:0.0 12:1.0 13:0.0 14:0.0 15:0.0 16:1.0 -1:0.0 
1.0 0.0 0.0 0.0 0.0 0.0 1:1.0 2:0.0 3:0.0 4:1.0 5:0.0 6:0.0 7:0.0 8:1.0 9:1.0 10:1.0 11:0.0 12:0.0 13:0.5 14:1.0 15:0.0 16:0.0 -1:0.0 
1.0 0.0 0.0 0.0 0.0 0.0 1:1.0 2:0.0 3:0.0 4:1.0 5:0.0 6:0.0 7:1.0 8:1.0 9:1.0 10:1.0 11:0.0 12:0.0 13:0.5 14:1.0 15:0.0 16:1.0 -1:0.0 
1.0 0.0 1.0 0.0 0.0 0.0 1:1.0 2:0.0 3:0.0 4:1.0 5:0.0 6:0.0 7:1.0 8:1.0 9:1.0 10:1.0 11:0.0 12:0.0 13:0.5 14:1.0 15:0.0 16:1.0 -1:0.0 
1.0 0.0 1.0 0.0 0.0 0.0 1:1.0 2:0.0 3:0.0 4:1.0 5:1.0 6:0.0 7:0.0 8:1.0 9:1.0 10:1.0 11:0.0 12:0.0 13:0.25 14:1.0 15:0.0 16:0.0 -1:0.0 
1.0 0.0 1.0 0.0 0.0 1.0 1:1.0 2:0.0 3:0.0 4:1.0 5:0.0 6:0.0 7:0.0 8:1.0 9:1.0 10:1.0 11:0.0 12:0.0 13:0.25 14:0.0 15:0.0 16:1.0 -1:0.0 
1.0 0.0 1.0 0.0 0.0 1.0 1:1.0 2:0.0 3:0.0 4:1.0 5:0.0 6:0.0 7:1.0 8:1.0 9:1.0 10:1.0 11:0.0 12:0.0 13:0.5 14:1.0 15:0.0 16:1.0 -1:0.0 
1.0 0.0 1.0 0.0 1.0 1.0 1:1.0 2:0.0 3:0.0 4:1.0 5:0.0 6:0.0 7:1.0 8:1.0 9:1.0 10:1.0 11:0.0 12:0.0 13:0.5 14:1.0 15:0.0 16:1.0 -1:0.0 
1.0 0.0 1.0 0.0 1.0 1.0 1:1.0 2:0.0 3:0.0 4:1.0 5:0.0 6:0.0 7:1.0 8:1.0 9:1.0 10:1.0 11:0.0 12:0.0 13:0.5 14:1.0 15:0.0 16:1.0 -1:0.0 
1.0 1.0 1.0 0.0 1.0 1.0 1:1.0 2:0.0 3:0.0 4:1.0 5:0.0 6:0.0 7:1.0 8:1.0 9:1.0 10:1.0 11:0.0 12:0.0 13:0.5 14:1.0 15:1.0 16:1.0 -1:0.0 
1.0 1.0 1.0 1.0 1.0 1.0 1:1.0 2:0.0 3:0.0 4:1.0 5:0.0 6:1.0 7:1.0 8:1.0 9:1.0 10:1.0 11:0.0 12:1.0 13:0.25 14:1.0 15:0.0 16:1.0 -1:0.0 
1.0 1.0 1.0 1.0 1.0 1.0 1:1.0 2:0.0 3:0.0 4:1.0 5:0.0 6:0.0 7:0.0 8:1.0 9:1.0 10:1.0 11:0.0 12:0.0 13:0.25 14:1.0 15:0.0 16:1.0 -1:0.0 
1.0 1.0 1.0 1.0 1.0 1.0 1:1.0 2:0.0 3:0.0 4:1.0 5:0.0 6:0.0 7:1.0 8:1.0 9:1.0 10:1.0 11:0.0 12:0.0 13:0.5 14:1.0 15:0.0 16:1.0 -1:0.0 
-1.0 0.0 0.0 0.0 0.0 0.0 1:0.0 2:1.0 3:1.0 4:0.0 5:1.0 6:0.0 7:1.0 8:0.0 9:1.0 10:1.0 11:0.0 12:0.0 13:0.25 14:1.0 15:0.0 16:0.0 -1:0.0 
-1.0 0.0 0.0 0.0 0.0 0.0 1:0.0 2:1.0 3:1.0 4:0.0 5:1.0 6:1.0 7:1.0 8:0.0 9:1.0 10:1.0 11:0.0 12:0.0 13:0.25 14:1.0 15:0.0 16:0.0 -1:0.0 
-1.0 0.0 0.0 0.0 0.0 0.0 1:0.0 2:1.0 3:1.0 4:0.0 5:0.0 6:0.0 7:0.0 8:0.0 9:1.0 10:1.0 11:0.0 12:0.0 13:0.25 14:1.0 15:0.0 16:1.0 -1:0.0 
-1.0 0.0 0.0 0.0 0.0 0.0 1:0.0 2:1.0 3:1.0 4:0.0 5:0.0 6:0.0 7:1.0 8:0.0 9:1.0 10:1.0 11:0.0 12:0.0 13:0.25 14:1.0 15:0.0 16:1.0 -1:0.0 
-1.0 0.0 0.0 0.0 0.0 0.0 1:0.0 2:1.0 3:1.0 4:0.0 5:1.0 6:1.0 7:0.0 8:0.0 9:1.0 10:1.0 11:0.0 12:0.0 13:0.25 14:1.0 15:0.0 16:1.0 -1:0.0 
-1.0 0.0 1.0 0.0 0.0 0.0 1:0.0 2:1.0 3:1.0 4:0.0 5:1.0 6:0.0 7:0.0 8:0.0 9:1.0 10:1.0 11:0.0 12:0.0 13:0.25 14:1.0 15:1.0 16:0.0 -1:0.0 
-1.0 0.0 1.0 0.0 0.0 0.0 1:0.0 2:1.0 3:1.0 4:0.0 5:1.0 6:0.0 7:1.0 8:0.0 9:1.0 10:1.0 11:0.0 12:0.0 13:0.25 14:1.0 15:0.0 16:0.0 -1:0.0 
-1.0 0.0 1.0 0.0 0.0 1.0 1:0.0 2:1.0 3:1.0 4:0.0 5:1.0 6:0.0 7:0.0 8:0.0 9:1.0 10:1.0 11:0.0 12:0.0 13:0.25 14:1.0 15:1.0 16:0.0 -1:0.0 
-1.0 0.0 1.0 0.0 0.0 1.0 1:0.0 2:1.0 3:1.0 4:0.0 5:1.0 6:1.0 7:1.0 8:0.0 9:1.0 10:1.0 11:0.0 12:0.0 13:0.25 14:1.0 15:0.0 16:0.0 -1:0.0 
-1.0 0.0 1.0 0.0 1.0 1.0 1:0.0 2:1.0 3:1.0 4:0.0 5:1.0 6:0.0 7:1.0 8:0.0 9:1.0 10:1.0 11:0.0 12:0.0 13:0.25 14:1.0 15:0.0 16:1.0 -1:0.0 
-1.0 0.0 1.0 0.0 1.0 1.0 1:0.0 2:1.0 3:1.0 4:0.0 5:1.0 6:1.0 7:0.0 8:0.0 9:1.0 10:1.0 11:0.0 12:0.0 13:0.25 14:1.0 15:0.0 16:0.0 -1:0.0 
-1.0 1.0 1.0 0.0 1.0 1.0 1:0.0 2:1.0 3:1.0 4:0.0 5:0.0 6:0.0 7:1.0 8:0.0 9:1.0 10:1.0 11:0.0 12:0.0 13:0.25 14:1.0 15:0.0 16:0.0 -1:0.0 
-1.0 1.0 1.0 1.0 1.0 1.0 1:0.0 2:1.0 3:1.0 4:0.0 5:0.0 6:1.0 7:1.0 8:0.0 9:1.0 10:1.0 11:0.0 12:0.0 13:0.25 14:1.0 15:0.0 16:1.0 -1:0.0 
-1.0 1.0 1.0 1.0 1.0 1.0 1:0.0 2:1.0 3:1.0 4:0.0 5:1.0 6:1.0 7:1.0 8:0.0 9:1.0 10:1.0 11:0.0 12:0.0 13:0.25 14:1.0 15:0.0 16:0.0 -1:0.0 
-1.0 1.0 1.0 1.0 1.0 1.0 1:0.0 2:1.0 3:1.0 4:0.0 5:1.0 6:0.0 7:0.0 8:0.0 9:1.0 10:1.0 11:0.0 12:0.0 13:0.25 14:1.0 15:0.0 16:0.0 -1:0.0 
-1.0 -1.0 1.0 0.0 1.0 1.0 1:0.0 2:0.0 3:0.0 4:0.0 5:0.0 6:1.0 7:1.0 8:1.0 9:1.0 10:0.0 11:1.0 12:0.0 13:0.0 14:1.0 15:0.0 16:0.0 -1:0.0 
-1.0 -1.0 1.0 1.0 1.0 1.0 1:0.0 2:0.0 3:1.0 4:0.0 5:0.0 6:0.0 7:1.0 8:1.0 9:1.0 10:1.0 11:0.0 12:0.0 13:0.0 14:1.0 15:0.0 16:0.0 -1:0.0 
-1.0 -1.0 1.0 1.0 1.0 1.0 1:0.0 2:0.0 3:1.0 4:0.0 5:0.0 6:0.0 7:0.0 8:0.0 9:1.0 10:1.0 11:0.0 12:0.0 13:0.5 14:1.0 15:0.0 16:1.0 -1:0.0 
-1.0 -1.0 1.0 1.0 1.0 1.0 1:0.0 2:0.0 3:1.0 4:0.0 5:0.0 6:0.0 7:1.0 8:1.0 9:1.0 10:1.0 11:0.0 12:0.0 13:0.5 14:1.0 15:0.0 16:0.0 -1:0.0 
-1.0 -1.0 -0.0 0.0 0.0 0.0 1:0.0 2:0.0 3:1.0 4:0.0 5:0.0 6:1.0 7:0.0 8:1.0 9:1.0 10:0.0 11:0.0 12:1.0 13:0.0 14:1.0 15:1.0 16:0.0 -1:0.0 
-1.0 -1.0 -0.0 0.0 0.0 0.0 1:0.0 2:0.0 3:1.0 4:0.0 5:0.0 6:1.0 7:0.0 8:1.0 9:1.0 10:0.0 11:0.0 12:1.0 13:0.0 14:1.0 15:0.0 16:0.0 -1:0.0 
-1.0 -1.0 -0.0 0.0 0.0 1.0 1:0.0 2:0.0 3:1.0 4:0.0 5:0.0 6:1.0 7:0.0 8:1.0 9:1.0 10:0.0 11:0.0 12:1.0 13:0.0 14:1.0 15:0.0 16:0.0 -1:0.0 
-1.0 -1.0 -0.0 0.0 0.0 1.0 1:0.0 2:0.0 3:1.0 4:0.0 5:0.0 6:1.0 7:1.0 8:1.0 9:1.0 10:0.0 11:0.0 12:1.0 13:0.0 14:1.0 15:0.0 16:0.0 -1:0.0 
-1.0 -1.0 -0.0 0.0 1.0 1.0 1:0.0 2:0.0 3:1.0 4:0.0 5:0.0 6:1.0 7:1.0 8:1.0 9:1.0 10:0.0 11:0.0 12:1.0 13:0.0 14:1.0 15:0.0 16:0.0 -1:0.0 
-1.0 -1.0 -0.0 0.0 1.0 1.0 1:0.0 2:0.0 3:1.0 4:0.0 5:0.0 6:1.0 7:0.0 8:1.0 9:1.0 10:0.0 11:0.0 12:1.0 13:0.0 14:1.0 15:0.0 16:0.0 -1:0.0 
-1.0 -1.0 -1.0 0.0 1.0 1.0 1:0.0 2:0.0 3:1.0 4:0.0 5:0.0 6:1.0 7:1.0 8:1.0 9:1.0 10:0.0 11:0.0 12:1.0 13:0.0 14:1.0 15:0.0 16:0.0 -1:0.0 
-1.0 -1.0 -1.0 1.0 1.0 1.0 1:0.0 2:0.0 3:1.0 4:0.0 5:0.0 6:1.0 7:1.0 8:1.0 9:1.0 10:0.0 11:0.0 12:1.0 13:0.0 14:1.0 15:0.0 16:1.0 -1:0.0 
-1.0 -1.0 -1.0 1.0 1.0 1.0 1:0.0 2:0.0 3:1.0 4:0.0 5:0.0 6:1.0 7:1.0 8:1.0 9:1.0 10:0.0 11:1.0 12:1.0 13:0.0 14:1.0 15:0.0 16:1.0 -1:0.0 
-1.0 -1.0 -1.0 1.0 1.0 1.0 1:0.0 2:0.0 3:1.0 4:0.0 5:0.0 6:1.0 7:1.0 8:1.0 9:1.0 10:0.0 11:0.0 12:1.0 13:0.0 14:1.0 15:0.0 16:1.0 -1:0.0 
-1.0 -1.0 -1.0 -1.0 1.0 1.0 1:0.0 2:0.0 3:1.0 4:0.0 5:0.0 6:1.0 7:1.0 8:1.0 9:1.0 10:1.0 11:1.0 12:0.0 13:0.5 14:0.0 15:0.0 16:0.0 -1:0.0 
-1.0 -1.0 -1.0 -1.0 1.0 1.0 1:0.0 2:0.0 3:1.0 4:0.0 5:0.0 6:1.0 7:1.0 8:1.0 9:1.0 10:1.0 11:0.0 12:0.0 13:0.5 14:1.0 15:0.0 16:0.0 -1:0.0 
-1.0 -1.0 -1.0 -1.0 1.0 1.0 1:0.0 2:0.0 3:1.0 4:0.0 5:0.0 6:1.0 7:0.0 8:1.0 9:1.0 10:1.0 11:0.0 12:0.0 13:0.5 14:0.0 15:0.0 16:0.0 -1:0.0 
-1.0 -1.0 -0.0 -1.0 -0.0 1.0 1:0.0 2:0.0 3:1.0 4:0.0 5:1.0 6:0.0 7:0.0 8:0.0 9:0.0 10:1.0 11:0.0 12:0.0 13:0.75 14:0.0 15:0.0 16:0.0 -1:0.0 
-1.0 -1.0 -0.0 -1.0 -0.0 1.0 1:1.0 2:0.0 3:1.0 4:0.0 5:1.0 6:0.0 7:0.0 8:0.0 9:0.0 10:1.0 11:0.0 12:0.0 13:0.75 14:0.0 15:0.0 16:0.0 -1:0.0 
-1.0 -1.0 -1.0 -1.0 -0.0 1.0 1:1.0 2:0.0 3:1.0 4:0.0 5:1.0 6:0.0 7:0.0 8:0.0 9:0.0 10:1.0 11:1.0 12:0.0 13:0.75 14:0.0 15:1.0 16:0.0 -1:0.0 
-1.0 -1.0 -1.0 -1.0 -1.0 1.0 1:0.0 2:0.0 3:1.0 4:0.0 5:0.0 6:0.0 7:0.0 8:0.0 9:0.0 10:1.0 11:0.0 12:0.0 13:0.75 14:0.0 15:0.0 16:0.0 -1:0.0 
-1.0 -1.0 -1.0 -1.0 -1.0 1.0 1:1.0 2:0.0 3:1.0 4:0.0 5:1.0 6:0.0 7:0.0 8:0.0 9:0.0 10:1.0 11:0.0 12:0.0 13:0.75 14:0.0 15:0.0 16:0.0 -1:0.0 
-1.0 -1.0 -1.0 -1.0 -1.0 1.0 1:1.0 2:0.0 3:1.0 4:0.0 5:1.0 6:0.0 7:0.0 8:0.0 9:0.0 10:1.0 11:1.0 12:0.0 13:0.75 14:0.0 15:0.0 16:0.0 -1:0.0 
-1.0 -1.0 -0.0 -1.0 -0.0 -0.0 1:0.0 2:0.0 3:1.0 4:0.0 5:0.0 6:1.0 7:1.0 8:0.0 9:0.0 10:0.0 11:0.0 12:0.0 13:0.5 14:0.0 15:0.0 16:0.0 -1:0.0 
-1.0 -1.0 -0.0 -1.0 -0.0 -0.0 1:0.0 2:0.0 3:0.0 4:0.0 5:0.0 6:0.0 7:1.0 8:0.0 9:0.0 10:1.0 11:1.0 12:0.0 13:1.0 14:1.0 15:0.0 16:0.0 -1:0.0 
-1.0 -1.0 -0.0 -1.0 -0.0 -1.0 1:0.0 2:0.0 3:1.0 4:0.0 5:0.0 6:1.0 7:1.0 8:0.0 9:0.0 10:0.0 11:0.0 12:0.0 13:0.75 14:0.0 15:0.0 16:0.0 -1:0.0 
-1.0 -1.0 -0.0 -1.0 -0.0 -1.0 1:0.0 2:0.0 3:1.0 4:0.0 5:0.0 6:1.0 7:1.0 8:0.0 9:0.0 10:0.0 11:1.0 12:0.0 13:0.0 14:0.0 15:0.0 16:0.0 -1:0.0 
-1.0 -1.0 -1.0 -1.0 -0.0 -1.0 1:0.0 2:0.0 3:1.0 4:0.0 5:0.0 6:1.0 7:1.0 8:0.0 9:0.0 10:0.0 11:0.0 12:0.0 13:0.75 14:0.0 15:0.0 16:0.0 -1:0.0 
-1.0 -1.0 -1.0 -1.0 -1.0 -1.0 1:0.0 2:0.0 3:1.0 4:0.0 5:0.0 6:0.0 7:0.0 8:0.0 9:0.0 10:1.0 11:0.0 12:0.0 13:0.0 14:0.0 15:0.0 16:0.0 -1:0.0 
-1.0 -1.0 -1.0 -1.0 -1.0 -1.0 1:0.0 2:0.0 3:1.0 4:0.0 5:0.0 6:1.0 7:1.0 8:0.0 9:0.0 10:0.0 11:0.0 12:0.0 13:0.625 14:0.0 15:0.0 16:0.0 -1:0.0 
-1.0 -1.0 -1.0 -1.0 -1.0 -1.0 1:0.0 2:0.0 3:1.0 4:0.0 5:0.0 6:0.0 7:0.0 8:0.0 9:0.0 10:1.0 11:0.0 12:0.0 13:0.0 14:0.0 15:0.0 16:0.0 -1:0.0 
