svm_type nu_svc
kernel_type rbf
gamma 8.0E-4
nr_class 7
total_sv 44
rho -1.3700460545198198E-4 -0.10826763799088239 -0.13093510371008474 -0.3900050495544664 -0.16224968101219808 -0.09863779810288358 -0.16597097140836106 -0.06145241753996405 -0.20660355682809642 -0.0940816275994999 0.06532871015269828 -0.04410631548157523 1.4852622834992838E-4 -0.2414720677834668 -0.02295599102914355 1.93341697535255E-14 -0.02516269012321891 0.15394850989312445 -4.0141557977395515E-4 0.2752559907163456 1.279898189626751
label 1 2 3 4 5 6 7
nr_sv 10 8 4 7 3 5 7
SV
0.0 0.0 0.0 0.0 0.0 20.233302177696547 1:1.0 2:0.0 3:0.0 4:1.0 5:0.0 6:0.0 7:1.0 8:1.0 9:1.0 10:1.0 11:0.0 12:0.0 13:0.5 14:0.0 15:0.0 16:1.0 -1:0.0 
67.6045840773882 2.200055071946163 0.0 0.0 0.0 0.0 1:1.0 2:0.0 3:0.0 4:1.0 5:0.0 6:0.0 7:0.0 8:1.0 9:1.0 10:1.0 11:0.0 12:0.0 13:0.5 14:1.0 15:0.0 16:1.0 -1:0.0 
0.0 154.4120377420693 0.0 0.0 0.0 0.0 1:1.0 2:0.0 3:0.0 4:1.0 5:0.0 6:0.0 7:0.0 8:1.0 9:1.0 10:1.0 11:0.0 12:0.0 13:0.25 14:1.0 15:0.0 16:0.0 -1:0.0 
0.0 0.0 0.0 101.86182731455332 91.16922137194523 73.34299350628962 1:1.0 2:0.0 3:0.0 4:1.0 5:0.0 6:0.0 7:0.0 8:1.0 9:1.0 10:1.0 11:0.0 12:0.0 13:0.5 14:0.0 15:1.0 16:0.0 -1:0.0 
61.52017151042327 156.5833753928457 40.832130332830076 76.33912080738602 0.0 0.0 1:1.0 2:0.0 3:0.0 4:1.0 5:0.0 6:0.0 7:1.0 8:1.0 9:1.0 10:1.0 11:0.0 12:0.0 13:0.5 14:1.0 15:0.0 16:0.0 -1:0.0 
67.6045840773882 158.78343046479188 84.18995944913412 127.49895307015159 91.16922137194523 73.34299350628962 1:1.0 2:0.0 3:1.0 4:1.0 5:0.0 6:1.0 7:1.0 8:0.0 9:1.0 10:1.0 11:0.0 12:0.0 13:0.5 14:1.0 15:0.0 16:1.0 -1:0.0 
0.0 0.0 84.18995944913412 62.772073180647176 0.0 12.363475763793582 1:1.0 2:0.0 3:0.0 4:1.0 5:0.0 6:1.0 7:1.0 8:1.0 9:1.0 10:1.0 11:0.0 12:1.0 13:0.0 14:0.0 15:0.0 16:1.0 -1:0.0 
67.6045840773882 0.40180696110281144 0.0 0.0 91.16922137194523 10.739567190687675 1:1.0 2:0.0 3:0.0 4:1.0 5:1.0 6:0.0 7:0.0 8:1.0 9:1.0 10:1.0 11:0.0 12:0.0 13:0.25 14:1.0 15:0.0 16:0.0 -1:0.0 
0.0 0.0 0.0 0.0 13.21953709893206 53.10969132859307 1:1.0 2:0.0 3:0.0 4:1.0 5:0.0 6:0.0 7:0.0 8:1.0 9:1.0 10:1.0 11:0.0 12:0.0 13:0.25 14:0.0 15:0.0 16:1.0 -1:0.0 
0.0 0.0 84.18995944913412 0.0 0.0 0.0 1:1.0 2:0.0 3:0.0 4:1.0 5:0.0 6:1.0 7:1.0 8:1.0 9:1.0 10:1.0 11:0.0 12:1.0 13:0.25 14:1.0 15:0.0 16:1.0 -1:0.0 
-0.0 32.46370478261753 0.0 0.3739656207033546 15.430261550558129 0.6366374536012293 1:0.0 2:1.0 3:1.0 4:0.0 5:1.0 6:0.0 7:0.0 8:0.0 9:1.0 10:1.0 11:0.0 12:0.0 13:0.25 14:1.0 15:1.0 16:0.0 -1:0.0 
-67.6045840773882 306.4921616220002 0.0 0.0 83.49007069637102 0.0 1:0.0 2:1.0 3:1.0 4:0.0 5:1.0 6:0.0 7:0.0 8:0.0 9:1.0 10:1.0 11:0.0 12:0.0 13:0.25 14:1.0 15:0.0 16:1.0 -1:0.0 
-61.52017151042327 0.0 0.0 0.0 0.0 0.0 1:0.0 2:1.0 3:1.0 4:0.0 5:1.0 6:0.0 7:0.0 8:0.0 9:1.0 10:1.0 11:0.0 12:0.0 13:0.25 14:1.0 15:0.0 16:0.0 -1:0.0 
-0.0 0.0 0.0 0.0 83.49007069636745 0.0 1:0.0 2:1.0 3:1.0 4:0.0 5:1.0 6:1.0 7:0.0 8:0.0 9:1.0 10:1.0 11:0.0 12:0.0 13:0.25 14:1.0 15:0.0 16:0.0 -1:0.0 
-67.6045840773882 264.1933566802463 76.65367774831672 144.56587305222556 197.28329436375836 188.74996662338896 1:0.0 2:1.0 3:1.0 4:0.0 5:0.0 6:0.0 7:1.0 8:0.0 9:1.0 10:1.0 11:0.0 12:0.0 13:0.25 14:1.0 15:0.0 16:0.0 -1:0.0 
-67.6045840773882 201.70417694689237 136.2732048858964 144.93894635320672 0.0 112.23148093431486 1:0.0 2:1.0 3:1.0 4:0.0 5:0.0 6:1.0 7:1.0 8:0.0 9:1.0 10:1.0 11:0.0 12:0.0 13:0.25 14:1.0 15:0.0 16:1.0 -1:0.0 
-0.0 0.0 76.65367774831672 153.06358866417577 0.0 0.0 1:0.0 2:1.0 3:1.0 4:0.0 5:1.0 6:1.0 7:1.0 8:0.0 9:1.0 10:1.0 11:0.0 12:0.0 13:0.25 14:1.0 15:0.0 16:0.0 -1:0.0 
-0.0 0.0 0.0 0.0 0.0 68.63272595921076 1:0.0 2:1.0 3:1.0 4:0.0 5:1.0 6:0.0 7:0.0 8:0.0 9:1.0 10:1.0 11:0.0 12:0.0 13:0.25 14:1.0 15:0.0 16:0.0 -1:0.0 
-0.0 -0.0 287.1528793178925 0.48507418209623243 89.64383557381429 129.12559102017673 1:0.0 2:0.0 3:1.0 4:0.0 5:0.0 6:0.0 7:1.0 8:1.0 9:1.0 10:1.0 11:1.0 12:0.0 13:0.0 14:1.0 15:0.0 16:0.0 -1:0.0 
-158.78343046479188 -306.4921616220002 71.41660692841825 0.0 0.0 9.80686941708164 1:0.0 2:0.0 3:1.0 4:0.0 5:0.0 6:0.0 7:1.0 8:1.0 9:1.0 10:1.0 11:0.0 12:0.0 13:0.0 14:1.0 15:0.0 16:0.0 -1:0.0 
-158.78343046479188 -498.36123840975625 88.72399925272954 0.0 344.6827786761049 361.2178798339048 1:0.0 2:0.0 3:1.0 4:0.0 5:0.0 6:0.0 7:0.0 8:0.0 9:1.0 10:1.0 11:0.0 12:0.0 13:0.5 14:1.0 15:0.0 16:1.0 -1:0.0 
-154.8138447031721 -0.0 0.0 1249.7274107861808 0.0 0.0 1:0.0 2:0.0 3:1.0 4:0.0 5:0.0 6:0.0 7:1.0 8:1.0 9:1.0 10:1.0 11:0.0 12:0.0 13:0.5 14:1.0 15:0.0 16:0.0 -1:0.0 
-84.18995944913412 -136.2732048858964 -375.876878570622 464.3912517199753 0.2209631659612991 189.02831174326076 1:0.0 2:0.0 3:1.0 4:0.0 5:0.0 6:1.0 7:1.0 8:1.0 9:1.0 10:0.0 11:0.0 12:1.0 13:0.0 14:1.0 15:0.0 16:0.0 -1:0.0 
-84.18995944913412 -136.2732048858964 -0.0 48.7610814305974 48.028760591085955 100.1850052239282 1:0.0 2:0.0 3:1.0 4:0.0 5:0.0 6:1.0 7:1.0 8:1.0 9:1.0 10:0.0 11:0.0 12:1.0 13:0.0 14:1.0 15:0.0 16:1.0 -1:0.0 
-0.0 -17.03415061073705 -0.0 0.0 0.0 0.0 1:0.0 2:0.0 3:1.0 4:0.0 5:0.0 6:1.0 7:1.0 8:1.0 9:1.0 10:0.0 11:0.0 12:1.0 13:0.0 14:1.0 15:0.0 16:0.0 -1:0.0 
-0.0 -0.0 -0.0 0.0 133.1922606981663 0.0 1:0.0 2:0.0 3:1.0 4:0.0 5:0.0 6:1.0 7:0.0 8:1.0 9:1.0 10:0.0 11:0.0 12:1.0 13:0.0 14:1.0 15:0.0 16:0.0 -1:0.0 
-40.832130332830076 -0.0 -0.0 0.0 0.0 0.0 1:0.0 2:0.0 3:1.0 4:0.0 5:0.0 6:1.0 7:1.0 8:1.0 9:1.0 10:0.0 11:0.0 12:1.0 13:0.0 14:1.0 15:0.0 16:1.0 -1:0.0 
-0.0 -0.0 -71.41660692841825 0.0 0.0 0.0 1:0.0 2:0.0 3:1.0 4:0.0 5:0.0 6:1.0 7:1.0 8:1.0 9:1.0 10:0.0 11:1.0 12:1.0 13:0.0 14:1.0 15:0.0 16:1.0 -1:0.0 
-84.18995944913412 -0.0 -0.0 0.0 0.0 0.0 1:0.0 2:0.0 3:1.0 4:0.0 5:0.0 6:1.0 7:1.0 8:1.0 9:1.0 10:0.0 11:0.0 12:1.0 13:0.0 14:1.0 15:0.0 16:1.0 -1:0.0 
-127.49895307015159 -153.4375542848791 -1.1182580366618216 -48.7610814305974 0.5026035216099338 468.3365156844632 1:0.0 2:0.0 3:1.0 4:0.0 5:0.0 6:1.0 7:1.0 8:1.0 9:1.0 10:1.0 11:0.0 12:0.0 13:0.5 14:0.0 15:0.0 16:0.0 -1:0.0 
-127.49895307015159 -289.5048194054323 -1249.0942269316151 -464.3912517199753 0.0 0.0 1:0.0 2:0.0 3:1.0 4:0.0 5:0.0 6:1.0 7:1.0 8:1.0 9:1.0 10:1.0 11:0.0 12:0.0 13:0.5 14:1.0 15:0.0 16:0.0 -1:0.0 
-113.47406823243493 -0.0 -0.0 -0.0 408.15975076684254 0.0 1:0.0 2:0.0 3:1.0 4:0.0 5:0.0 6:1.0 7:0.0 8:1.0 9:1.0 10:1.0 11:0.0 12:0.0 13:0.5 14:0.0 15:0.0 16:0.0 -1:0.0 
-91.16922137194523 -212.7135559143165 -434.32661424991915 -133.41322386412762 -408.6623542884525 2139.397069381135 1:0.0 2:0.0 3:1.0 4:0.0 5:0.0 6:0.0 7:0.0 8:0.0 9:0.0 10:1.0 11:0.0 12:0.0 13:0.75 14:0.0 15:0.0 16:0.0 -1:0.0 
-19.48964710355987 -166.98014139273846 -0.0 -48.028760591085955 -0.0 406.4854431824161 1:0.0 2:0.0 3:1.0 4:0.0 5:1.0 6:0.0 7:1.0 8:0.0 9:0.0 10:1.0 11:0.0 12:0.0 13:0.75 14:0.0 15:0.0 16:0.0 -1:0.0 
-71.67957426838535 -0.0 -0.0 -0.0 -0.0 0.0 1:1.0 2:0.0 3:1.0 4:0.0 5:1.0 6:0.0 7:0.0 8:0.0 9:0.0 10:1.0 11:1.0 12:0.0 13:0.75 14:0.0 15:1.0 16:0.0 -1:0.0 
-13.21953709893206 -0.0 -0.0 -0.0 -0.0 0.0 1:0.0 2:0.0 3:1.0 4:0.0 5:0.0 6:0.0 7:0.0 8:0.0 9:0.0 10:1.0 11:0.0 12:0.0 13:0.75 14:0.0 15:0.0 16:0.0 -1:0.0 
-91.16922137194523 -0.0 -0.0 -0.0 -0.0 0.0 1:1.0 2:0.0 3:1.0 4:0.0 5:1.0 6:0.0 7:0.0 8:0.0 9:0.0 10:1.0 11:0.0 12:0.0 13:0.75 14:0.0 15:0.0 16:0.0 -1:0.0 
-0.0 -91.79314749394756 -13.619761131593416 -94.51415587163038 -0.0 -0.0 1:0.0 2:0.0 3:1.0 4:0.0 5:0.0 6:0.0 7:1.0 8:0.0 9:0.0 10:0.0 11:0.0 12:0.0 13:0.0 14:0.0 15:0.0 16:0.0 -1:0.0 
-73.34299350628962 -89.07105939957808 -118.5010774310237 -100.1850052239282 -0.0 -406.4854431824161 1:0.0 2:0.0 3:1.0 4:0.0 5:0.0 6:1.0 7:1.0 8:0.0 9:0.0 10:0.0 11:0.0 12:0.0 13:1.0 14:0.0 15:0.0 16:1.0 -1:0.0 
-23.103042954481257 -0.0 -0.0 -0.0 -0.0 -0.0 1:0.0 2:0.0 3:1.0 4:0.0 5:0.0 6:1.0 7:1.0 8:0.0 9:0.0 10:0.0 11:0.0 12:0.0 13:0.75 14:0.0 15:0.0 16:0.0 -1:0.0 
-0.0 -0.0 -0.0 -94.51415587163038 -0.0 -0.0 1:0.0 2:0.0 3:1.0 4:0.0 5:0.0 6:1.0 7:1.0 8:0.0 9:0.0 10:0.0 11:1.0 12:0.0 13:0.0 14:0.0 15:0.0 16:0.0 -1:0.0 
-73.34299350628962 -0.0 -0.0 -0.0 -0.0 -0.0 1:0.0 2:0.0 3:1.0 4:0.0 5:0.0 6:0.0 7:0.0 8:0.0 9:0.0 10:1.0 11:0.0 12:0.0 13:0.0 14:0.0 15:0.0 16:0.0 -1:0.0 
-0.0 -0.0 -0.0 -0.0 -319.28849943251294 -0.0 1:0.0 2:0.0 3:1.0 4:0.0 5:0.0 6:1.0 7:1.0 8:0.0 9:0.0 10:0.0 11:0.0 12:0.0 13:0.625 14:0.0 15:0.0 16:0.0 -1:0.0 
-73.34299350628962 -189.38660407699018 -368.02950170854604 -0.0 -149.04801625195034 -2139.397069381135 1:0.0 2:0.0 3:1.0 4:0.0 5:0.0 6:0.0 7:0.0 8:0.0 9:0.0 10:1.0 11:0.0 12:0.0 13:0.0 14:0.0 15:0.0 16:0.0 -1:0.0 
