svm_type nu_svc
kernel_type rbf
gamma 8.0E-4
nr_class 7
total_sv 45
rho -0.1374161870312733 -0.04838457254330509 -0.1273564744717691 -0.52243522405613 -0.21623459035726417 -0.08888520646309646 0.15764255781167788 -0.083420719495524 -0.21564454968216454 -0.17182500068069517 0.228314475318235 -0.30331287663265294 -0.7405569914258865 -0.2607882300857918 -0.24185293700873178 -0.0788967403367612 -0.023101754958225175 0.08979561943779256 -5.286572794917262E-4 0.4010607915357659 0.9711480211235727
label 1 2 3 4 5 6 7
nr_sv 11 10 4 7 3 5 5
SV
9.839203389844442 0.0 0.0 0.0 0.0 0.0 1:1.0 2:0.0 3:0.0 4:1.0 5:0.0 6:0.0 7:0.0 8:1.0 9:1.0 10:1.0 11:0.0 12:0.0 13:0.5 14:1.0 15:0.0 16:1.0 -1:0.0 
79.87206282317297 204.66973196097376 102.51752318633096 116.66316696698931 0.0 53.67906360152036 1:0.0 2:0.0 3:0.0 4:1.0 5:0.0 6:1.0 7:1.0 8:1.0 9:1.0 10:1.0 11:0.0 12:1.0 13:0.0 14:1.0 15:0.0 16:1.0 -1:0.0 
0.4021014645267141 0.0 0.0 0.0 0.0 0.0 1:1.0 2:0.0 3:0.0 4:1.0 5:0.0 6:0.0 7:1.0 8:1.0 9:1.0 10:1.0 11:0.0 12:0.0 13:0.25 14:0.0 15:1.0 16:1.0 -1:0.0 
52.43301083322083 0.0 102.51752318633096 0.0 0.0 0.0 1:0.0 2:0.0 3:0.0 4:1.0 5:0.0 6:1.0 7:1.0 8:1.0 9:1.0 10:1.0 11:0.0 12:1.0 13:0.0 14:1.0 15:0.0 16:1.0 -1:0.0 
10.009261481495425 0.0 0.0 0.0 13.706878521866216 0.0 1:1.0 2:0.0 3:0.0 4:1.0 5:1.0 6:0.0 7:0.0 8:1.0 9:1.0 10:1.0 11:0.0 12:0.0 13:0.25 14:1.0 15:0.0 16:0.0 -1:0.0 
0.0 44.037391463278375 0.0 131.08221007526888 94.53019670252561 87.91506634782496 1:1.0 2:0.0 3:0.0 4:1.0 5:0.0 6:0.0 7:0.0 8:1.0 9:1.0 10:1.0 11:0.0 12:0.0 13:0.5 14:0.0 15:1.0 16:0.0 -1:0.0 
0.0 97.72016128469376 0.0 0.0 0.0 34.2360027463046 1:1.0 2:0.0 3:0.0 4:1.0 5:0.0 6:0.0 7:1.0 8:1.0 9:1.0 10:1.0 11:0.0 12:0.0 13:0.5 14:1.0 15:0.0 16:0.0 -1:0.0 
79.87206282317297 165.88028234284855 102.51752318633096 131.08221007526888 94.53019670252561 87.91506634782496 1:1.0 2:0.0 3:1.0 4:1.0 5:0.0 6:1.0 7:1.0 8:0.0 9:1.0 10:1.0 11:0.0 12:0.0 13:0.5 14:1.0 15:0.0 16:1.0 -1:0.0 
0.0 0.0 49.72099874537055 0.0 0.0 0.0 1:1.0 2:0.0 3:0.0 4:1.0 5:0.0 6:1.0 7:1.0 8:1.0 9:1.0 10:1.0 11:0.0 12:1.0 13:0.0 14:0.0 15:0.0 16:1.0 -1:0.0 
0.0 0.0 0.0 0.0 0.0 27.693245899564896 1:1.0 2:0.0 3:0.0 4:1.0 5:0.0 6:0.0 7:0.0 8:1.0 9:1.0 10:1.0 11:0.0 12:0.0 13:0.5 14:1.0 15:0.0 16:0.0 -1:0.0 
79.87206282317297 112.19751252143315 0.0 0.0 94.53019670252561 0.0 1:1.0 2:0.0 3:0.0 4:1.0 5:1.0 6:0.0 7:0.0 8:1.0 9:1.0 10:1.0 11:0.0 12:0.0 13:0.25 14:1.0 15:0.0 16:0.0 -1:0.0 
-0.0 0.0 0.0 0.0 0.0 0.6128554442937661 1:0.0 2:1.0 3:1.0 4:0.0 5:1.0 6:0.0 7:1.0 8:0.0 9:1.0 10:1.0 11:0.0 12:0.0 13:0.25 14:1.0 15:0.0 16:0.0 -1:0.0 
-79.87206282317297 2.7635651443114697 78.42032533237045 140.51473963465824 28.66264142107407 0.0 1:0.0 2:1.0 3:1.0 4:0.0 5:1.0 6:1.0 7:1.0 8:0.0 9:1.0 10:1.0 11:0.0 12:0.0 13:0.25 14:1.0 15:0.0 16:0.0 -1:0.0 
-79.87206282317297 618.4076118258535 78.37162702086043 0.0 129.23848125205055 0.0 1:0.0 2:1.0 3:1.0 4:0.0 5:0.0 6:0.0 7:0.0 8:0.0 9:1.0 10:1.0 11:0.0 12:0.0 13:0.25 14:1.0 15:0.0 16:1.0 -1:0.0 
-52.73015830567193 0.0 0.0 0.0 0.0 0.0 1:0.0 2:1.0 3:1.0 4:0.0 5:0.0 6:0.0 7:1.0 8:0.0 9:1.0 10:1.0 11:0.0 12:0.0 13:0.25 14:1.0 15:0.0 16:1.0 -1:0.0 
-19.953418863415486 0.0 0.0 0.0 0.0 0.0 1:0.0 2:1.0 3:1.0 4:0.0 5:1.0 6:1.0 7:0.0 8:0.0 9:1.0 10:1.0 11:0.0 12:0.0 13:0.25 14:1.0 15:0.0 16:1.0 -1:0.0 
-0.0 0.0 0.0 0.0 114.89406364126536 33.637738019835005 1:0.0 2:1.0 3:1.0 4:0.0 5:1.0 6:0.0 7:0.0 8:0.0 9:1.0 10:1.0 11:0.0 12:0.0 13:0.25 14:1.0 15:1.0 16:0.0 -1:0.0 
-0.0 0.0 0.0 0.0 0.0 91.32228542415038 1:0.0 2:1.0 3:1.0 4:0.0 5:1.0 6:1.0 7:0.0 8:0.0 9:1.0 10:1.0 11:0.0 12:0.0 13:0.25 14:1.0 15:0.0 16:0.0 -1:0.0 
-0.0 377.5571161285885 0.0 132.56107512702607 0.0 206.10562487299083 1:0.0 2:1.0 3:1.0 4:0.0 5:0.0 6:0.0 7:1.0 8:0.0 9:1.0 10:1.0 11:0.0 12:0.0 13:0.25 14:1.0 15:0.0 16:0.0 -1:0.0 
-79.87206282317297 0.0 138.84754513764656 132.56107512704608 0.0 71.25799286542708 1:0.0 2:1.0 3:1.0 4:0.0 5:0.0 6:1.0 7:1.0 8:0.0 9:1.0 10:1.0 11:0.0 12:0.0 13:0.25 14:1.0 15:0.0 16:1.0 -1:0.0 
-0.0 0.0 0.0 0.0 86.25386333086787 0.0 1:0.0 2:1.0 3:1.0 4:0.0 5:1.0 6:0.0 7:0.0 8:0.0 9:1.0 10:1.0 11:0.0 12:0.0 13:0.25 14:1.0 15:0.0 16:0.0 -1:0.0 
-209.9176738061269 -4.369520215018227 397.3749494922477 645.5880128220236 51.49347427290416 310.20224585572817 1:0.0 2:0.0 3:0.0 4:0.0 5:0.0 6:1.0 7:1.0 8:1.0 9:1.0 10:0.0 11:1.0 12:0.0 13:0.0 14:1.0 15:0.0 16:0.0 -1:0.0 
-209.9176738061269 -380.3206812729 104.54665113145658 0.0 0.0 11.21848796553026 1:0.0 2:0.0 3:1.0 4:0.0 5:0.0 6:0.0 7:1.0 8:1.0 9:1.0 10:1.0 11:0.0 12:0.0 13:0.0 14:1.0 15:0.0 16:0.0 -1:0.0 
-204.66973196097376 -614.0380916108352 152.870582778576 0.0 371.78825019888757 250.72215242078437 1:0.0 2:0.0 3:1.0 4:0.0 5:0.0 6:0.0 7:0.0 8:0.0 9:1.0 10:1.0 11:0.0 12:0.0 13:0.5 14:1.0 15:0.0 16:1.0 -1:0.0 
-0.0 -0.0 0.0 726.21575135872 0.0 0.0 1:0.0 2:0.0 3:1.0 4:0.0 5:0.0 6:0.0 7:1.0 8:1.0 9:1.0 10:1.0 11:0.0 12:0.0 13:0.5 14:1.0 15:0.0 16:0.0 -1:0.0 
-0.5687334584559252 -0.0 -111.64237631547529 93.74833112843568 98.18497309746589 46.08509753627667 1:0.0 2:0.0 3:1.0 4:0.0 5:0.0 6:1.0 7:0.0 8:1.0 9:1.0 10:0.0 11:0.0 12:1.0 13:0.0 14:1.0 15:1.0 16:0.0 -1:0.0 
-0.0 -78.6211595415193 -104.54665113145658 43.86662405748065 47.249762761313775 0.0 1:0.0 2:0.0 3:1.0 4:0.0 5:0.0 6:1.0 7:0.0 8:1.0 9:1.0 10:0.0 11:0.0 12:1.0 13:0.0 14:1.0 15:0.0 16:0.0 -1:0.0 
-49.72099874537055 -0.0 -0.0 0.0 0.0 0.0 1:0.0 2:0.0 3:1.0 4:0.0 5:0.0 6:1.0 7:1.0 8:1.0 9:1.0 10:0.0 11:0.0 12:1.0 13:0.0 14:1.0 15:0.0 16:0.0 -1:0.0 
-37.65896955104462 -0.0 -0.0 242.73846016707546 0.0 195.49398950294872 1:0.0 2:0.0 3:1.0 4:0.0 5:0.0 6:1.0 7:1.0 8:1.0 9:1.0 10:0.0 11:0.0 12:1.0 13:0.0 14:1.0 15:0.0 16:0.0 -1:0.0 
-102.51752318633096 -77.8938685418864 -0.0 0.0 0.0 0.0 1:0.0 2:0.0 3:1.0 4:0.0 5:0.0 6:1.0 7:1.0 8:1.0 9:1.0 10:0.0 11:0.0 12:1.0 13:0.0 14:1.0 15:0.0 16:1.0 -1:0.0 
-64.28982017683042 -0.0 -438.60315595534837 81.2905806804951 33.06436790618345 57.52671690028616 1:0.0 2:0.0 3:1.0 4:0.0 5:0.0 6:1.0 7:1.0 8:1.0 9:1.0 10:0.0 11:1.0 12:1.0 13:0.0 14:1.0 15:0.0 16:1.0 -1:0.0 
-102.51752318633096 -139.12446940747174 -0.0 0.0 0.0 0.0 1:0.0 2:0.0 3:1.0 4:0.0 5:0.0 6:1.0 7:1.0 8:1.0 9:1.0 10:0.0 11:0.0 12:1.0 13:0.0 14:1.0 15:0.0 16:1.0 -1:0.0 
-116.66316696698931 -140.51473963465824 -323.07829786538974 -162.2299759303137 0.6626860551667578 442.89164499113906 1:0.0 2:0.0 3:1.0 4:0.0 5:0.0 6:1.0 7:1.0 8:1.0 9:1.0 10:1.0 11:1.0 12:0.0 13:0.5 14:0.0 15:0.0 16:0.0 -1:0.0 
-131.08221007526888 -265.12215025407215 -1048.725466315354 -299.4140201031732 0.0 0.0 1:0.0 2:0.0 3:1.0 4:0.0 5:0.0 6:1.0 7:1.0 8:1.0 9:1.0 10:1.0 11:0.0 12:0.0 13:0.5 14:1.0 15:0.0 16:0.0 -1:0.0 
-131.08221007526888 -0.0 -0.0 -0.0 407.94801214719206 0.0 1:0.0 2:0.0 3:1.0 4:0.0 5:0.0 6:1.0 7:0.0 8:1.0 9:1.0 10:1.0 11:0.0 12:0.0 13:0.5 14:0.0 15:0.0 16:0.0 -1:0.0 
-0.0 -201.14792697213323 -0.6318917119640786 -3.2778231374114863 -0.503058640729704 0.0 1:0.0 2:0.0 3:1.0 4:0.0 5:1.0 6:0.0 7:0.0 8:0.0 9:0.0 10:1.0 11:0.0 12:0.0 13:0.75 14:0.0 15:0.0 16:0.0 -1:0.0 
-94.53019670252561 -14.55055681884913 -0.0 -0.0 -0.0 255.06662250741186 1:1.0 2:0.0 3:1.0 4:0.0 5:1.0 6:0.0 7:0.0 8:0.0 9:0.0 10:1.0 11:0.0 12:0.0 13:0.75 14:0.0 15:0.0 16:0.0 -1:0.0 
-47.683412622088326 -0.0 -0.0 -43.97193962390229 -0.0 0.0 1:1.0 2:0.0 3:1.0 4:0.0 5:1.0 6:0.0 7:0.0 8:0.0 9:0.0 10:1.0 11:1.0 12:0.0 13:0.75 14:0.0 15:1.0 16:0.0 -1:0.0 
-94.53019670252561 -143.3505658542755 -422.6498327598277 -131.24934100364933 -408.10763956162907 1342.4559079337455 1:0.0 2:0.0 3:1.0 4:0.0 5:0.0 6:0.0 7:0.0 8:0.0 9:0.0 10:1.0 11:0.0 12:0.0 13:0.75 14:0.0 15:0.0 16:0.0 -1:0.0 
-60.553662602303504 -0.0 -0.0 -0.0 -0.0 0.0 1:1.0 2:0.0 3:1.0 4:0.0 5:1.0 6:0.0 7:0.0 8:0.0 9:0.0 10:1.0 11:0.0 12:0.0 13:0.75 14:0.0 15:0.0 16:0.0 -1:0.0 
-87.91506634782496 -116.85418517131505 -260.5678324590252 -195.49398950294872 -88.90054726220254 -67.24143590826183 1:0.0 2:0.0 3:1.0 4:0.0 5:0.0 6:1.0 7:1.0 8:0.0 9:0.0 10:0.0 11:0.0 12:0.0 13:0.5 14:0.0 15:0.0 16:0.0 -1:0.0 
-87.91506634782496 -119.4760993018808 -311.57505378301755 -40.535130910293496 -124.07853748968547 -255.06662250741186 1:0.0 2:0.0 3:0.0 4:0.0 5:0.0 6:0.0 7:1.0 8:0.0 9:0.0 10:1.0 11:1.0 12:0.0 13:1.0 14:1.0 15:0.0 16:0.0 -1:0.0 
-0.0 -0.0 -0.0 -63.07668352626933 -229.91256023925104 -0.0 1:0.0 2:0.0 3:1.0 4:0.0 5:0.0 6:1.0 7:1.0 8:0.0 9:0.0 10:0.0 11:1.0 12:0.0 13:0.0 14:0.0 15:0.0 16:0.0 -1:0.0 
-27.693245899564896 -0.0 -0.0 -0.0 -0.0 -0.0 1:0.0 2:0.0 3:1.0 4:0.0 5:0.0 6:0.0 7:0.0 8:0.0 9:0.0 10:1.0 11:0.0 12:0.0 13:0.0 14:0.0 15:0.0 16:0.0 -1:0.0 
-87.91506634782496 -166.60621215350125 -0.0 -0.0 -0.0 -1275.2144720254837 1:0.0 2:0.0 3:1.0 4:0.0 5:0.0 6:0.0 7:0.0 8:0.0 9:0.0 10:1.0 11:0.0 12:0.0 13:0.0 14:0.0 15:0.0 16:0.0 -1:0.0 
