svm_type nu_svc
kernel_type rbf
gamma 1.0E-4
nr_class 7
total_sv 7
rho 0.0 0.0 0.0 0.0 0.0 0.0 0.0 0.0 0.0 0.0 0.0 0.0 0.0 0.0 0.0 0.0 0.0 0.0 0.0 0.0 0.0
label 1 2 3 4 5 6 7
nr_sv 1 1 1 1 1 1 1
SV
994.2643119592822 1600.5739362718934 1212.6646910012098 2000.3834505786394 1416.3964541999453 1379.8187350932028 1:1.0 2:0.0 3:0.0 4:1.0 5:0.0 6:0.0 7:1.0 8:1.0 9:1.0 10:1.0 11:0.0 12:0.0 13:0.5 14:0.0 15:0.0 16:1.0 -1:0.0 
-994.2643119592822 1650.0015735643412 1240.8265660823315 1416.3964541999453 1905.2028162618703 1416.396454200111 1:0.0 2:1.0 3:1.0 4:0.0 5:1.0 6:0.0 7:0.0 8:0.0 9:1.0 10:1.0 11:0.0 12:0.0 13:0.25 14:1.0 15:1.0 16:0.0 -1:0.0 
-1600.5739362718934 -1650.0015735643412 2500.3302533535298 3077.2589875275567 1798.2010718113365 2000.3834505780787 1:0.0 2:0.0 3:1.0 4:0.0 5:0.0 6:0.0 7:1.0 8:1.0 9:1.0 10:1.0 11:1.0 12:0.0 13:0.0 14:1.0 15:0.0 16:0.0 -1:0.0 
-1212.6646910012098 -1240.8265660823315 -2500.3302533535298 3077.2589875275567 1322.811322242404 2000.383450578387 1:0.0 2:0.0 3:1.0 4:0.0 5:0.0 6:1.0 7:1.0 8:1.0 9:1.0 10:0.0 11:0.0 12:1.0 13:0.0 14:1.0 15:0.0 16:0.0 -1:0.0 
-2000.3834505786394 -1416.3964541999453 -3077.2589875275567 -3077.2589875275567 2462.1684766656513 2353.3757890309844 1:0.0 2:0.0 3:1.0 4:0.0 5:0.0 6:1.0 7:1.0 8:1.0 9:1.0 10:1.0 11:0.0 12:0.0 13:0.5 14:0.0 15:0.0 16:0.0 -1:0.0 
-1416.3964541999453 -1905.2028162618703 -1798.2010718113365 -1322.811322242404 -2462.1684766656513 3902.585717609592 1:0.0 2:0.0 3:1.0 4:0.0 5:0.0 6:0.0 7:0.0 8:0.0 9:0.0 10:1.0 11:0.0 12:0.0 13:0.75 14:0.0 15:0.0 16:0.0 -1:0.0 
-1379.8187350932028 -1416.396454200111 -2000.3834505780787 -2000.383450578387 -2353.3757890309844 -3902.585717609592 1:0.0 2:0.0 3:1.0 4:0.0 5:0.0 6:0.0 7:1.0 8:0.0 9:0.0 10:0.0 11:0.0 12:0.0 13:0.0 14:0.0 15:0.0 16:0.0 -1:0.0 
