svm_type nu_svc
kernel_type rbf
gamma 8.0E-4
nr_class 7
total_sv 38
rho -0.12566339533137807 -0.22417169838071224 -0.24630197254357594 -0.5391272252546784 -0.12819941760955114 -0.07150570916379724 -0.2965694263505008 -0.10730881925466312 -0.2108329478695922 -0.005233017341134626 0.2140383441686125 -0.49456153674915754 0.0 0.12277856660137046 0.1857797442922316 -2.325558928198465E-14 -0.02057917501031132 0.1771571144719278 0.14048374762997354 0.26726635609063815 0.5899484547541791
label 1 2 3 4 5 6 7
nr_sv 10 8 3 5 3 5 4
SV
0.0 0.0 0.0 0.0 5.458716375718635 43.65000380597555 1:1.0 2:0.0 3:0.0 4:1.0 5:0.0 6:0.0 7:1.0 8:1.0 9:1.0 10:1.0 11:0.0 12:0.0 13:0.5 14:0.0 15:0.0 16:1.0 -1:0.0 
38.519987628341134 0.0 0.0 0.0 0.0 0.0 1:1.0 2:0.0 3:0.0 4:1.0 5:0.0 6:0.0 7:0.0 8:1.0 9:1.0 10:1.0 11:0.0 12:0.0 13:0.5 14:1.0 15:0.0 16:1.0 -1:0.0 
0.0 0.0 32.35993832852576 0.0 0.0 0.0 1:1.0 2:0.0 3:0.0 4:1.0 5:0.0 6:0.0 7:0.0 8:1.0 9:1.0 10:1.0 11:0.0 12:0.0 13:0.5 14:1.0 15:1.0 16:0.0 -1:0.0 
0.0 65.78478617365747 0.0 0.0 0.0 0.0 1:1.0 2:0.0 3:0.0 4:1.0 5:0.0 6:0.0 7:1.0 8:1.0 9:1.0 10:1.0 11:0.0 12:0.0 13:0.5 14:1.0 15:0.0 16:0.0 -1:0.0 
26.359632291698208 0.0 102.72996294770068 0.0 0.0 0.0 1:0.0 2:0.0 3:0.0 4:1.0 5:0.0 6:1.0 7:1.0 8:1.0 9:1.0 10:1.0 11:0.0 12:1.0 13:0.0 14:1.0 15:0.0 16:1.0 -1:0.0 
78.6419635394416 147.92334155931553 102.72996294770068 114.75348087800118 0.0 48.09967093450106 1:0.0 2:0.0 3:0.0 4:1.0 5:0.0 6:1.0 7:1.0 8:1.0 9:1.0 10:1.0 11:0.0 12:1.0 13:0.0 14:1.0 15:0.0 16:1.0 -1:0.0 
78.6419635394416 16.512331072104615 0.0 0.0 90.97860626197716 0.0 1:1.0 2:0.0 3:0.0 4:1.0 5:1.0 6:0.0 7:0.0 8:1.0 9:1.0 10:1.0 11:0.0 12:0.0 13:0.25 14:1.0 15:0.0 16:0.0 -1:0.0 
0.0 0.0 0.0 79.19349200052139 90.97860626197716 44.58346769200122 1:1.0 2:0.0 3:0.0 4:1.0 5:0.0 6:0.0 7:0.0 8:1.0 9:1.0 10:1.0 11:0.0 12:0.0 13:0.5 14:0.0 15:1.0 16:0.0 -1:0.0 
0.0 147.92334155931553 0.0 43.79802708222654 0.0 43.78691942657377 1:1.0 2:0.0 3:0.0 4:1.0 5:0.0 6:0.0 7:1.0 8:1.0 9:1.0 10:1.0 11:0.0 12:0.0 13:0.5 14:1.0 15:0.0 16:0.0 -1:0.0 
78.6419635394416 36.78117270948693 102.72996294770068 131.71468141869755 90.97860626197716 87.43692323254932 1:1.0 2:0.0 3:1.0 4:1.0 5:0.0 6:1.0 7:1.0 8:0.0 9:1.0 10:1.0 11:0.0 12:0.0 13:0.5 14:1.0 15:0.0 16:1.0 -1:0.0 
-0.0 48.56168497469178 0.0 0.0 133.5307060213496 46.04010493392115 1:0.0 2:1.0 3:1.0 4:0.0 5:1.0 6:0.0 7:0.0 8:0.0 9:1.0 10:1.0 11:0.0 12:0.0 13:0.25 14:1.0 15:1.0 16:0.0 -1:0.0 
-0.0 0.0 0.0 0.0 59.71281493195521 0.0 1:0.0 2:1.0 3:1.0 4:0.0 5:1.0 6:0.0 7:0.0 8:0.0 9:1.0 10:1.0 11:0.0 12:0.0 13:0.25 14:1.0 15:0.0 16:0.0 -1:0.0 
-0.0 0.0 5.37395840256767 0.0 0.0 0.0 1:0.0 2:1.0 3:1.0 4:0.0 5:1.0 6:1.0 7:1.0 8:0.0 9:1.0 10:1.0 11:0.0 12:0.0 13:0.25 14:1.0 15:0.0 16:0.0 -1:0.0 
-78.6419635394416 0.0 0.0 0.0 0.0 0.0 1:0.0 2:1.0 3:1.0 4:0.0 5:0.0 6:0.0 7:0.0 8:0.0 9:1.0 10:1.0 11:0.0 12:0.0 13:0.25 14:1.0 15:0.0 16:1.0 -1:0.0 
-78.6419635394416 274.2185788029237 134.34896006419163 139.8985597814955 100.93892867520356 189.66389665504758 1:0.0 2:1.0 3:1.0 4:0.0 5:0.0 6:0.0 7:1.0 8:0.0 9:1.0 10:1.0 11:0.0 12:0.0 13:0.25 14:1.0 15:0.0 16:1.0 -1:0.0 
-64.87961992003933 0.0 0.0 0.0 0.0 0.0 1:0.0 2:1.0 3:1.0 4:0.0 5:1.0 6:1.0 7:0.0 8:0.0 9:1.0 10:1.0 11:0.0 12:0.0 13:0.25 14:1.0 15:0.0 16:1.0 -1:0.0 
-0.0 0.0 0.0 0.0 71.12119666292904 0.0 1:0.0 2:1.0 3:1.0 4:0.0 5:1.0 6:0.0 7:1.0 8:0.0 9:1.0 10:1.0 11:0.0 12:0.0 13:0.25 14:1.0 15:0.0 16:0.0 -1:0.0 
-78.6419635394416 96.77416179085778 134.34896006419163 263.95954675753865 0.0 102.84605394029123 1:0.0 2:1.0 3:1.0 4:0.0 5:1.0 6:1.0 7:1.0 8:0.0 9:1.0 10:1.0 11:0.0 12:0.0 13:0.25 14:1.0 15:0.0 16:0.0 -1:0.0 
-119.07828995524903 -145.33584676554955 0.0 385.11651822604784 0.5515106247630016 291.10681528874255 1:0.0 2:0.0 3:1.0 4:0.0 5:0.0 6:0.0 7:1.0 8:1.0 9:1.0 10:1.0 11:1.0 12:0.0 13:0.0 14:1.0 15:0.0 16:0.0 -1:0.0 
-147.92334155931553 -0.0 309.9602608462732 0.0 0.0 145.84731754433153 1:0.0 2:0.0 3:0.0 4:0.0 5:0.0 6:1.0 7:1.0 8:1.0 9:1.0 10:0.0 11:1.0 12:0.0 13:0.0 14:1.0 15:0.0 16:0.0 -1:0.0 
-147.92334155931553 -274.2185788029237 309.9602608462651 0.0 307.7429286158667 0.0 1:0.0 2:0.0 3:1.0 4:0.0 5:0.0 6:0.0 7:1.0 8:1.0 9:1.0 10:1.0 11:0.0 12:0.0 13:0.0 14:1.0 15:0.0 16:0.0 -1:0.0 
-102.72996294770068 -134.34896006419163 -607.7652173456257 536.2373797100921 39.74982786192064 226.8667097585346 1:0.0 2:0.0 3:1.0 4:0.0 5:0.0 6:1.0 7:1.0 8:1.0 9:1.0 10:0.0 11:0.0 12:1.0 13:0.0 14:1.0 15:0.0 16:0.0 -1:0.0 
-102.72996294770068 -134.34896006419163 -12.155304346912525 10.724747594201851 0.0 62.388345183597046 1:0.0 2:0.0 3:1.0 4:0.0 5:0.0 6:1.0 7:1.0 8:1.0 9:1.0 10:0.0 11:0.0 12:1.0 13:0.0 14:1.0 15:0.0 16:1.0 -1:0.0 
-102.72996294770068 -5.37395840256767 -0.0 0.0 0.0 0.0 1:0.0 2:0.0 3:1.0 4:0.0 5:0.0 6:1.0 7:1.0 8:1.0 9:1.0 10:0.0 11:0.0 12:1.0 13:0.0 14:1.0 15:0.0 16:0.0 -1:0.0 
-32.35993832852576 -0.0 -0.0 0.0 39.50901392182892 0.0 1:0.0 2:0.0 3:1.0 4:0.0 5:0.0 6:1.0 7:0.0 8:1.0 9:1.0 10:0.0 11:0.0 12:1.0 13:0.0 14:1.0 15:1.0 16:0.0 -1:0.0 
-0.0 -0.0 -0.0 0.0 103.91931367200262 0.0 1:0.0 2:0.0 3:1.0 4:0.0 5:0.0 6:1.0 7:0.0 8:1.0 9:1.0 10:0.0 11:0.0 12:1.0 13:0.0 14:1.0 15:0.0 16:0.0 -1:0.0 
-131.71468141869755 -139.8985597814955 -385.11651822604784 -10.724747594201851 351.49148884908595 438.112104879422 1:0.0 2:0.0 3:1.0 4:0.0 5:0.0 6:1.0 7:1.0 8:1.0 9:1.0 10:1.0 11:0.0 12:0.0 13:0.5 14:0.0 15:0.0 16:0.0 -1:0.0 
-106.03031854205155 -0.0 -0.0 -0.0 0.0 0.0 1:0.0 2:0.0 3:1.0 4:0.0 5:0.0 6:1.0 7:1.0 8:1.0 9:1.0 10:1.0 11:1.0 12:0.0 13:0.5 14:0.0 15:0.0 16:0.0 -1:0.0 
-131.71468141869755 -263.95954675753865 -0.0 -536.2373797100921 0.0 0.0 1:0.0 2:0.0 3:1.0 4:0.0 5:0.0 6:1.0 7:1.0 8:1.0 9:1.0 10:1.0 11:0.0 12:0.0 13:0.5 14:1.0 15:0.0 16:0.0 -1:0.0 
-90.97860626197716 -142.18392437174595 -154.14721962031427 -143.66914153392327 -175.74574442454232 471.43056349730114 1:0.0 2:0.0 3:1.0 4:0.0 5:0.0 6:0.0 7:0.0 8:0.0 9:0.0 10:1.0 11:0.0 12:0.0 13:0.75 14:0.0 15:0.0 16:0.0 -1:0.0 
-23.51001080473928 -160.65174360715875 -154.1472196203154 -39.50901392182892 -175.7457444245436 471.4305634972549 1:0.0 2:0.0 3:1.0 4:0.0 5:1.0 6:0.0 7:1.0 8:0.0 9:0.0 10:1.0 11:0.0 12:0.0 13:0.75 14:0.0 15:0.0 16:0.0 -1:0.0 
-90.97860626197716 -0.0 -0.0 -0.0 -0.0 0.0 1:1.0 2:0.0 3:1.0 4:0.0 5:1.0 6:0.0 7:0.0 8:0.0 9:0.0 10:1.0 11:0.0 12:0.0 13:0.75 14:0.0 15:0.0 16:0.0 -1:0.0 
-67.46859545723788 -62.467978312532686 -0.0 -0.0 -0.0 0.0 1:1.0 2:0.0 3:1.0 4:0.0 5:1.0 6:0.0 7:0.0 8:0.0 9:0.0 10:1.0 11:1.0 12:0.0 13:0.75 14:0.0 15:1.0 16:0.0 -1:0.0 
-5.458716375718635 -0.0 -0.0 -0.0 -0.0 0.0 1:0.0 2:0.0 3:1.0 4:0.0 5:0.0 6:0.0 7:0.0 8:0.0 9:0.0 10:1.0 11:0.0 12:0.0 13:0.75 14:0.0 15:0.0 16:0.0 -1:0.0 
-87.43692323254932 -121.05882352736133 -174.8501565807088 -70.56979946785916 -0.5225262149161947 -597.9835620200537 1:0.0 2:0.0 3:1.0 4:0.0 5:0.0 6:0.0 7:1.0 8:0.0 9:0.0 10:0.0 11:0.0 12:0.0 13:0.0 14:0.0 15:0.0 16:0.0 -1:0.0 
-87.43692323254932 -79.9928983169935 -0.0 -25.77199393098841 -0.0 -18.487473078324644 1:0.0 2:0.0 3:1.0 4:0.0 5:0.0 6:1.0 7:1.0 8:0.0 9:0.0 10:0.0 11:0.0 12:0.0 13:1.0 14:0.0 15:0.0 16:1.0 -1:0.0 
-5.246215393952964 -0.0 -0.0 -156.29691029067544 -353.99764302988046 -0.0 1:0.0 2:0.0 3:1.0 4:0.0 5:0.0 6:1.0 7:1.0 8:0.0 9:0.0 10:0.0 11:0.0 12:0.0 13:0.5 14:0.0 15:0.0 16:0.0 -1:0.0 
-87.43692323254932 -137.49833368490513 -262.10397625236527 -36.61635125260864 -83.59193563462536 -326.39009189617775 1:0.0 2:0.0 3:0.0 4:0.0 5:0.0 6:0.0 7:1.0 8:0.0 9:0.0 10:1.0 11:1.0 12:0.0 13:1.0 14:1.0 15:0.0 16:0.0 -1:0.0 
